-1.693695680617313926e+01,-7.674445613155278068e+00,1.596498129265047794e+01,4.516420204078521294e+01,-3.003637412655655226e+01,-2.241991696890857000e+01,4.467329151129018072e+01,-2.607557079605151529e+01,-4.284553810717712707e+01,2.323893232806713627e+01,1.457301535023389860e+01,-3.369250596453522206e+01,1.405897540440375693e+01,3.601653770472795202e+01,9.850317591263658912e+00,3.875992362156302562e+01,4.416552210021527003e+01,2.929798390490965687e+01,1.152941068417740311e+01,1.883238694417469006e+01,3.385485346407251939e+01,-1.116807884982957333e+01,-3.674442744623706147e+01,2.560791024046288555e+01,-1.739005088500537966e+01,-4.129632014027194487e+01,-7.088494695342705931e+00,-1.591746926281874330e+01,-2.556031376841986358e+01,-8.325632118971368456e+00,-2.527439390790373253e+01,-2.229112934872761898e+01,4.632388588955772235e+01,-3.894264853216938604e+01,-3.379636595812548272e+00,-2.784911931923254258e+01,4.055828391219721141e+01,2.486636628645506164e+01,-6.207245008675811526e+00,3.509158392868296517e+01,-3.428108650449549488e-01,-4.785042666177308490e+01,1.328132939436879312e+01,1.089222983515656473e+01,2.562784169042241089e+01,-3.627408856460524333e+01,4.395245723211156275e+01,-1.305224745677316101e+01,-2.192591597930430680e+00,-1.155258700631224755e+01,4.882509338787622966e+01,-2.561879434217648921e+01,2.787358808091984486e+01,4.489611184012481715e+01,-2.004869889630263469e+00,-1.219144821503432619e+00,-3.642269786896211059e+01,1.417672555555301628e+01,1.400638632387206073e+01,2.365900908265849267e+01,3.337776193586234541e+01,4.957612416628492724e+01,1.490935189481490397e+01,2.316563573770956808e+01,2.804981370071284985e+01,-3.557738033175161263e+01,-1.246135300070452701e+01,-1.599382563958188896e+01,2.539293918313968490e+01,4.507885390793535407e+01,-3.711444091466586315e+01,3.943222682876770335e+01,1.995852766351095653e+01,4.754427227548166712e+00,-3.561040062617987445e+01,6.692275346751891618e+00,4.465549716985110962e+01,-5.622744769756979011e+00,5.659012632037906165e+00,3.747091154452743211e+01,9.343211253609807088e+00,1.437812479585463521e+01,-3.019886907186823422e+01,3.499491335983287144e+01,-2.455505844815325300e+00,9.788080100569336750e+00,-3.872307656930767905e+01,-1.429500976064114681e+01,-2.307447036533868356e+01,3.163918176021167650e+00,-2.339488134712373579e+01,7.138257364637791369e+00,-2.420548322744461700e+01,1.042609994777223825e+01,-1.497591215604845338e+01,-2.394849664974253400e+01,-4.238930709600787594e+01,2.310559278566476138e+01,-8.464698232151912194e+00,-3.741690783692546773e+01,-4.400025630375849772e+01,3.606752789274427329e+01,-1.943677549221522582e+01,4.269047999541439431e+00,-2.119867193293389906e+00,3.319425595626540826e+01,1.775299561203446189e-02,-8.756692075449389989e+00,-4.269372154225349902e+01,-2.089474178963981643e+01,3.405450585772922523e+01,4.062977859613322096e+01,-3.572532702411515970e+01,-2.997941102653165046e+01,8.965118273458500653e+00,4.132323143838998902e+01,-4.070299982248451443e+01,3.634314681867417107e+01,-4.733960832731830237e+01,-2.633453518422913220e+01,-1.691466399317500091e+01,4.163886990738740224e+01,-4.193929850876959797e+00,3.173561496959661454e+01,-4.398235797504811728e+01,2.904087551899366204e+01,-1.337835284051838336e+01,4.313549248897108868e+01,3.993734970461155598e+01,-6.879370818378281349e+00,1.894398239166246611e+00,4.077536492946376256e+01,-4.095290624364948684e+01,-3.367941679651745090e+01,-3.966660278417449348e+01,3.144858474274006710e+01,-4.668883930670754268e+01,1.690311825594227102e+01,2.094881657293071697e+01,3.747610783725107808e+01,9.875301262258940227e+00,3.951298689227601812e+01,4.107845407031681617e+01,1.066336157212216529e-01,4.190851391276082438e+01,-8.071164439394133083e+00,1.727747094511704873e+01,1.233505105753535069e+01,3.935470184415262196e+01,2.608207853505785678e+01,4.061077576560617786e+01,-3.183398186664256713e+01,6.799202033745642026e+00,3.855854618599253314e+01,1.442397694843574740e+01,4.206968883596053388e+01,-4.537663271744491311e+01,5.532989643555551451e-01,4.119823152084164519e+01,1.376559941559832545e+01,-2.150240820029963018e+01,4.383516910420862445e+01,2.498655687068923470e+01,5.086915527873586029e+00,-4.616102012257510268e+01,7.992608330785824222e+00,-5.080150884981674331e+00,2.094863011936116948e+01,9.100942052945182326e+00,2.117740998254734919e+01,-3.072981645077690782e+00,-3.486336916148408704e+01,-3.742565494429695860e+01,-3.249577754535066987e+01,4.106431762633371818e+01,-6.855475194509508263e+00,2.395624483247437198e+01,8.216350871650945464e+00,4.557626115523451205e+01,-1.900251148963676684e+01,4.991512555014877783e+00,4.075646006323650994e+01,4.189791511873455931e+01,-1.816917620657868326e+01,-2.689518506924170893e+01,-2.353278568726073772e+01,3.957017427511209462e+01,-1.461064331977851971e+01,-2.016394588733624005e+01,2.602854626140546657e+01,3.749336312786773107e+01,-2.456582662863891287e+01,-3.639101744156466367e+01,2.453983561978014905e+01,-4.987266681538464752e+00,3.750345679485123185e+01,-4.735849153912991483e+01,7.148173745148369562e+00,1.572698339106198340e+01,1.661332356806728683e+01
3.118669657036183196e+01,-1.655673748832469094e+00,-4.880532844808955417e+01,-1.348450365635493675e+01,1.724429514988047174e+01,2.392939098400481868e+01,3.802970939681293316e+01,4.755631003758799658e+00,-2.648576020071074311e+01,-3.765263422225356038e+01,4.280168379631535913e+01,-6.958691821018263113e+00,-4.773984884483180480e+01,-2.848509877596010043e+01,-1.248886093193572400e+01,8.842946544375408280e+00,-4.523383533144719593e+01,2.129378749340093968e+00,1.805263223409804851e+01,4.824363790685381304e+01,-2.835336270742841691e+01,1.318645705003335955e+01,-4.886605529160203076e+00,1.996143149426635688e+01,-1.296984294759851153e+01,1.657817899625380065e+01,2.065386600356260161e+01,7.215936527112153165e+00,-1.447720813472525236e+01,1.911300145150973862e+01,-3.513518932829762775e+01,3.778552682459078227e+01,-1.763001198379211232e+01,-1.293526688642685940e+01,-2.680910689256043611e+01,1.007156282550253401e+01,7.023126005481977074e+00,1.455839587173015914e+01,-6.831800311826574656e+00,2.623243569253555307e+01,3.242585681502605155e+01,-3.799331327638909528e+01,-1.519406797915169705e+01,-1.537520042969050316e+01,-4.043216734539575441e+01,2.533886296826549867e+01,-3.695168815812604635e+01,-7.317692940005156021e-01,4.653026729159838482e+01,3.636984697583377368e+01,2.572701813277491922e+01,1.126630566194237737e+01,-3.295878434091690679e+01,3.045991043557363298e+01,2.432861087090045160e+01,2.417332169959151855e+01,-3.171468341875422681e+01,3.979006101957460828e+01,-3.827079401489361032e+01,1.210847007567390499e+01,5.766776138298219223e+00,-6.449720947884404865e+00,-2.502247832890234491e+01,3.737442747856335501e+01,-1.151908038117500688e+01,-3.350158289649533216e+00,-2.464370037710627237e+00,3.687583833162879188e+01,-1.548430362318696396e+01,4.574188681585587801e+01,4.612150413464232912e+01,-5.602933234942052643e+00,-1.268643854447388897e+01,-2.656154738060057596e+01,4.813517676641131970e+01,2.385426260923460617e+01,3.002024262609547023e+01,1.363763424090490872e+01,3.498522724537160400e+01,2.806761420590195399e+01,-2.256392550778922512e+01,-3.000494355835097693e+01,2.161253708440282750e+01,4.347108942989662950e+01,1.908289870506404862e+00,-4.907483993157985225e+01,-1.020313538114018215e+01,-1.150558004621630559e+01,2.016640423025507278e+00,4.472934347966403834e+01,1.538372951623294327e+01,-3.878928892041089682e+01,-9.267009814955131652e-01,2.196818635810018350e+00,-5.446033103339569692e+00,4.738430619522419107e+01,-3.210705778022544621e+01,-2.330872326640706760e+01,-1.421626149088477220e+01,3.096504632662530909e+01,7.312756027845837892e+00,-7.511856344424450604e+00,2.963004859124059109e+01,-2.525676903463617862e+01,-4.926328174039264951e+01,-2.697782370084474479e+01,-4.639178650167160356e+01,-4.696611137056138574e+01,-3.552140276299485322e+01,3.079254450102646956e+01,-9.350123911543057886e+00,1.672844037035140374e+01,3.809842745825628896e+01,2.501225508909396567e+01,3.266278549294197120e+01,-4.326391370050130547e+01,4.399865323148348750e+01,-3.851392163405292735e+01,-1.219601717690229847e+01,-2.108142509801772491e+01,1.370050462131058921e+01,5.153940249535616580e+00,-1.123728756294325137e+01,3.254705182977706279e+00,-1.534774015472491726e+01,1.031844526432670150e+01,-1.835162614007331383e+00,-4.025444992971578984e+01,-4.604270125622185361e+01,3.934490734984103000e+01,-3.180182397081616941e+01,3.662743035801651814e+01,9.480028493254001987e+00,-2.752228629305188523e+00,5.064450766443399310e+00,-2.814909085509910014e+01,-4.463479878825391012e+01,-4.947290513740432516e+01,1.886090577260771539e+01,2.835313507191997218e+01,9.797810205295926167e+00,-1.259502420676831491e+01,-1.491392172264220584e+01,2.253078536970730639e+01,2.470994295004597063e+01,-1.210902596302930689e+01,-3.755311558161487540e+01,7.043071806451684402e+00,-3.442681861238740737e+01,1.979653916065190700e+01,-1.087096157002924279e+01,-5.336182189927400010e+00,-3.950507648578180664e+01,4.780314045927752176e+01,-3.728966975487252711e+01,1.630371684798965504e+01,-1.661836653861453783e+01,-3.323127490778485083e+01,-6.359097664658593274e+00,4.217449823307629231e+01,-8.319871925620526909e+00,3.961826407316632981e+01,1.492307244094794072e+01,1.008031456434029671e+01,-4.893484392474888267e+01,-8.147379931254508989e+00,-7.661334764165398603e+00,-2.219677091909491651e+01,7.729002865873249917e+00,1.935410718904422112e+01,-1.097572998325171945e+01,-1.658169527101679819e+01,-3.054094150875270941e+01,-4.844472870453529367e+01,2.276540439438492935e+00,-4.514860589709137173e+01,-3.189318189968647488e+01,3.817791191682096041e+01,-2.205203718614427544e+00,4.736329545538249874e+01,2.751773669716257231e+01,-4.887155788529264555e+01,1.484687419759601035e+01,-4.309192414851382580e+01,-3.670819391385757058e+01,-4.583097577865078875e+01,-4.660084712297762621e+01,3.367385590924701688e+01,-2.138064086240070161e+00,-6.066372126169531143e+00,4.341343713737591514e+01,-1.165815803438392173e+01,2.759540832636581342e+01,1.263321618145322134e+01,5.582216846328305060e+00,3.465266275053825495e+01,4.434642538684936142e+01,1.133676691268381020e+01,-2.918247377844899759e+01,-3.301122343131311254e+01
4.758984803777111239e+01,4.543381076792683615e+01,4.862068784876086625e+01,3.549943374471818913e+01,1.208964038575347288e+01,4.887187946139418671e+01,-3.617097460652883711e+01,6.122548919945121071e+00,3.960508495773166260e+01,2.820868718477304782e+01,-1.332681315055472382e+01,1.434195367510064933e+01,2.707336253273163962e+01,-1.440722082144542426e+01,-4.838598732907328781e+01,-3.569945504920413271e+01,1.883465493916041567e+01,-4.051822611815124020e+01,2.463192356365600588e+01,-1.434952036067148917e+01,-1.134308302990195827e+01,-2.722072559442078088e+01,2.357846567407320038e+01,-1.660976890093673575e+01,-2.228554053597670404e+01,1.117197828534272297e+00,-9.588500840535884251e+00,9.999378932320153623e+00,3.990486011577354475e+01,8.439931636906132795e+00,-4.601469894004951300e+01,-3.027360580997772033e+01,-3.146057463551612798e+01,-2.434013591189709658e+01,4.759108967255513534e+01,3.525051729478246898e+01,-1.219394615922267278e+01,-9.990630002592297387e+00,2.372331668474344291e+00,6.940468984442230038e+00,-1.274451049240129130e+01,7.864026762795782055e+00,-2.466377162984858273e+01,-1.038162163737079347e+01,1.836220857895520453e+01,7.594130343638886949e+00,4.318442023627498116e+01,-3.056910308684788546e+01,-2.861172087231708971e+01,-2.496228092074605343e+01,-1.437363083957852794e+01,1.583679073941752868e+01,-2.836337702103920577e+01,3.025263941261098211e+01,-2.421778234803968388e+01,3.260770394461567179e+01,1.611482082652464287e+00,-2.554957906792520816e+01,-4.763008043879204934e+01,-3.867169928209152374e+01,-3.921353737945597118e+01,-4.714702389270303939e+01,6.856652086954436953e+00,-2.507723552860546334e+01,7.664608504442297132e+00,1.092896511130226145e+01,-1.129999353113213800e+01,-9.663537231130684191e+00,-3.048124934788340124e+00,-6.093202209135641034e+00,-1.158001984532548967e+01,-1.757432013309157526e+01,-3.885824854523159644e+01,3.847260961033133952e+01,3.101646710524567307e+00,1.825512600768600180e+01,-4.362369429621765704e+01,6.094400067762461681e+00,4.539578665293230841e+01,1.006986448296185799e+01,4.009354048731238862e+01,6.149345527743439455e+00,-2.092011645305542444e+01,2.832418677367846627e+01,1.861309340357234277e+01,-1.590529106378930457e+01,7.156584209965367371e+00,-2.766943707652400875e+01,2.381615770127981335e+01,3.955373191880867001e+00,-2.271317899693397280e+01,-1.125656045435443886e+01,-3.128106189417742300e+01,4.886536202597459067e+01,3.539900757833495248e+01,4.443077974353410298e+01,-1.216772916053812814e+01,1.974256828904360361e+01,-3.905798423344099657e+00,-7.005174564959395056e+00,-4.572567813681231286e+01,-2.109621806442751435e+01,3.731659051787540449e+01,-4.686881699614920649e+01,3.376325243146289523e+01,-1.465945234589198565e+00,-1.027688833832435655e+01,4.525611040771902083e+01,1.759317029122716924e+00,-4.220989503241698770e+01,-2.989037851887869479e+01,2.397743433727318063e+01,2.254375151862329929e+01,2.889566233956933683e+00,-4.062150478619231819e+01,-2.697426291104866891e+01,3.148416105528535880e+01,-3.727393057571663348e+01,4.663672740132921035e+01,3.177104571513077147e+01,1.687479016572079971e+01,4.938268175030331975e+01,2.954150976494082315e+01,-2.136897232863325868e+01,3.494790285297379739e+01,2.189588197272413694e+01,3.594416775788162255e+01,-1.697710107617648845e+01,-3.355908150178201765e+00,2.445478533922259601e+01,-9.300328660952276394e+00,-4.776367325683443710e+01,-1.813948539849855379e+01,-4.017257093372052879e+01,8.188255787085973125e+00,3.347615886856633693e+01,-4.879855211036166907e+01,3.732228201196243589e+01,-3.704471997140684891e+01,-2.845486525363517316e+01,2.281181464336755127e+01,-2.494943933806016645e+01,4.841227167430593425e+01,-4.663563185937758959e+01,3.487323193449015091e-01,-4.120793075620456136e+01,4.508368130289272813e+01,2.388513942700455672e+01,-4.529952316398932055e+01,3.105741712372104146e+01,-2.459261282957844230e+01,4.179845742667129826e-01,3.831163130985145671e+01,-2.622052930232118229e+01,4.248867271622339814e+01,-4.915605064447749584e+01,2.971063932183672662e+01,-4.386940334976359424e+01,-5.220703367411994478e+00,-7.775952754315390791e+00,-4.843432495189998122e+01,-2.120403947918664933e+00,3.453794569848019336e+01,1.023375130983875358e+01,-1.980313476160645081e+01,4.721680780777636954e+01,4.705579872173042588e+01,-2.189560063487623509e+01,4.740372846519338168e+01,-1.028049057796953569e+01,-1.375030491875227767e+01,9.887530447856341942e-01,1.892563675754318453e+01,4.736607712700842399e+01,-2.230476961551391923e+01,-4.050860140706671331e+01,-2.087876639480644414e+01,3.221111499891564023e+01,3.197268219372237397e+01,2.946043546440218464e+01,-1.165634792524291896e+01,-8.930013535074065700e+00,-3.913493757179187327e+01,3.147641832150297603e+01,-1.952648588368678872e+01,2.415589798496791119e+01,1.788759753021445187e+00,3.832492536600216937e+01,-1.600795222266921058e+01,5.561591637561170920e+00,-1.922339578086321055e+00,9.027039194205807027e-01,5.495742838787558426e+00,-2.964144854316652911e+01,1.700675407418342644e+01,2.822499373338753870e+01,-2.472402252516839027e+01,1.846899901657701548e+01,2.913800073529359835e+01,7.860749714448651559e+00
-1.086233397689577984e+01,-1.537880313802677890e+01,3.527918098645646694e+01,-4.639519544159130504e+01,2.963176151403139968e+01,4.577739991336070347e+00,-2.718107012440203007e+01,1.804207070537857405e+01,-2.492145559938282418e+01,-3.781869744659639565e+01,7.554276676327129181e+00,-6.684737949390910927e+00,-3.336236810118691665e+01,-2.661760861697043268e+01,2.120824477863493041e+00,-2.292379553022895067e+01,3.383208342263481683e+01,-2.403944554388546262e+00,-5.500020990266216714e+00,4.093860305249287990e+01,1.702100251295767919e+01,4.981181549329669167e+00,-1.979336991407140545e+01,-3.700740666520389510e+01,-4.918190275595507188e+01,-2.295638587594197233e+01,-2.490836293969693926e+01,3.093826964534724766e+01,-3.356813017172301272e+01,1.343196295579414290e+01,2.336048206233243008e+01,2.774673436501325341e+01,-2.777537980978416243e+01,-1.448430900588356174e+01,6.120307008099105772e+00,4.775310620177537402e+01,1.407019816370118193e+01,-2.106480283196853520e+01,4.911544668395174540e+01,-4.362305533772062915e+01,2.150275242709660617e+01,-1.101863729359573263e+01,5.144129295431564053e+00,3.022194940692106613e+01,3.380088406207391216e+01,-4.899847299809651702e+01,-2.390070282983627692e+01,1.126153733654934364e+01,4.583283444734556866e+01,9.007980667074855230e-01,-1.485340642976673031e+01,-1.313011591423620317e+01,6.132097093525968212e+00,2.403095318609055653e+01,1.320774713144761847e+01,1.878457730205523646e+01,-2.646541084472087579e+00,-4.621590712630555764e+00,1.666663064886410694e+01,-4.657804478623074118e+01,-2.732263132189842381e+01,4.677985337634024887e+01,-4.306007466657024452e+01,8.834902320742644477e+00,-3.933063311934569128e+01,-3.541954649066297200e+00,-1.533477961282674151e+01,2.042405692833952102e+01,3.100885443860540747e+01,-2.061183730583356422e+01,1.310569765902182837e+01,-4.439736268886832704e+01,-2.005643611846968266e+00,-4.075221112866280748e+01,-2.583999993462701283e+01,6.807219479987821842e+00,-1.042147633279230057e+01,-1.526664971724216535e+01,2.160090833316639092e+01,3.185933709113479040e+01,2.037543757608939998e+01,1.151228687381695792e+01,-4.351411186108084905e+01,-3.527794491540819877e+01,-3.654987878512893218e+01,-2.087539097061641868e+01,4.399720774743094154e+01,-2.111313280958867722e+01,4.457124372410626201e+00,3.622483942774630350e+01,-3.037780679956749452e+01,2.873030350857991166e+01,-2.716409022142382668e+01,4.593133853513123199e+01,4.763535555860493531e+01,2.803858662948698210e+01,2.263577315129477086e+01,-4.496092026977642320e+01,8.134981332340601057e+00,-7.475673303369128497e+00,-4.427771647609741734e+01,1.947539995204488505e+01,1.352194014355387708e+01,2.624025613995400463e-01,4.739703689990384561e+01,1.527123459194577748e+01,4.927292311505377853e+01,-2.844128918294282116e+01,-3.141006659319619132e+01,-3.260752855517610982e+01,-2.038004170728362396e+01,-3.708565263386708466e+01,6.669458269722600363e+00,-1.047973289413482867e+01,-4.090706037165968922e+01,1.344216642163685416e+00,-1.095527992578962717e+01,3.323549360561082011e+01,-3.478821236131313555e+00,2.792875359063736340e+01,4.898665089025686825e+01,3.529078681928474737e+01,4.782480452027544260e+01,-7.227794515700971090e+00,4.523037716769531613e+01,4.778443524164846679e+01,-2.958792090243886008e+01,2.836075826441349790e+01,1.508026104605806239e+01,-4.238966821140403596e+01,-3.650466931693368622e+01,-4.637538113628919234e+01,-6.429091575724870111e+00,-1.197588953142739943e+00,4.457608117626482169e+01,-2.154539171325227542e+01,-4.663751875308743244e+00,3.511043804217890596e+01,1.685943070945743827e+01,1.377933877013581920e+01,-4.435679005203650149e+01,8.624739870301494804e+00,-7.931719661070586014e+00,-3.980083152896855836e+01,4.717734325333916345e+00,-2.938506936877928766e+01,-2.314707848757652542e+01,3.094022966423606391e+01,-2.132810176398467306e+01,2.419830127148648202e+01,4.689711733012317296e+01,1.272601957042170540e+01,-4.767502638712021934e+01,-2.956796764866676241e+01,-2.936586707403847640e+00,-1.909364394657831454e+01,2.204831519359655445e+01,1.643866528964078455e+01,-1.450422161218922312e+01,2.577726321382636954e+01,-2.698719184541145211e+01,1.912272908755800138e+00,7.279644433765419809e-01,4.345444284264440427e+01,-2.941702502174973688e+01,-4.883990629233040437e+01,-2.215253864972435949e+01,1.496925007009910580e+01,-4.642610749358080113e+01,2.702011643999091817e+01,9.146805985276409423e-01,3.116993108615739061e+01,1.352112234977946770e+01,-2.470466951853739346e+01,1.820462121394100574e+00,1.329617449042347666e+01,-2.491752741947156835e+01,4.182388721392009678e+00,3.720537493530245143e+01,-8.193532302613968810e+00,-2.430874754858678344e+01,4.198100245922811524e+01,1.612721302945375967e+01,-5.892885919453782151e+00,3.595274943568654891e+01,-3.495858415087477766e+01,-4.936926258360399089e+01,2.321242989946180657e+01,-2.192875193021550828e+01,-7.538886722974954324e+00,-3.921105839886261890e+01,2.798971462813646838e+01,-3.642269973531878691e+01,-1.831389908592015558e+01,-2.385380428519184193e+01,-1.799649419974030096e+01,-2.114486808489816738e+01,2.103182437748103339e+01,8.315950682617479828e+00,-3.941791887321429755e+01
